<?xml version="1.0"?>
<opencv_storage>
<cascade>
  <stageType>BOOST</stageType>
  <featureType>LBP</featureType>
  <height>20</height>
  <width>20</width>
  <stageParams>
    <boostType>GAB</boostType>
    <minHitRate>9.9999898672103882e-01</minHitRate>
    <maxFalseAlarm>4.0000000596046448e-01</maxFalseAlarm>
    <weightTrimRate>9.4999999999999996e-01</weightTrimRate>
    <maxDepth>1</maxDepth>
    <maxWeakCount>100</maxWeakCount></stageParams>
  <featureParams>
    <maxCatCount>256</maxCatCount>
    <featSize>1</featSize></featureParams>
  <stageNum>20</stageNum>
  <stages>
    <!-- stage 0 -->
    <_>
      <maxWeakCount>5</maxWeakCount>
      <stageThreshold>-2.0568933486938477e+00</stageThreshold>
      <weakClassifiers>
        <_>
          <internalNodes>
            0 -1 153 -1002115008 -67046997 -1006352032 -578563105
            -388898619 -1109765 -233325329 -184551429</internalNodes>
          <leafValues>
            -8.6524575948715210e-01 4.8247340321540833e-01</leafValues></_>
        <_>
          <internalNodes>
            0 -1 400 -175644670 545845763 -2147286528 -191635182
            1342316544 25296898 537133312 -473177393</internalNodes>
          <leafValues>
            -6.8771326541900635e-01 5.3641903400421143e-01</leafValues></_>
        <_>
          <internalNodes>
            0 -1 34 -491814270 213122 -2139095040 -1606367120 1355416067
            606211 570917527 -206832669</internalNodes>
          <leafValues>
            -6.7462426424026489e-01 5.5339449644088745e-01</leafValues></_>
        <_>
          <internalNodes>
            0 -1 382 -286275966 -2109308032 1090703760 -593985080
            -2146840576 -2013230974 1073963008 -995639098</internalNodes>
          <leafValues>
            -5.9938931465148926e-01 5.6557577848434448e-01</leafValues></_>
        <_>
          <internalNodes>
            0 -1 55 -562049022 -2111652828 -1972470224 -1864191932
            -227287548 1148353860 -173812780 -496507177</internalNodes>
          <leafValues>
            -5.7763993740081787e-01 5.8418416976928711e-01</leafValues></_></weakClassifiers></_>
    <!-- stage 1 -->
    <_>
      <maxWeakCount>11</maxWeakCount>
      <stageThreshold>-1.9473397731781006e+00</stageThreshold>
      <weakClassifiers>
        <_>
          <internalNodes>
            0 -1 14 -1068315072 -767233082 -41625103 -528445 -733885611
            -119028761 -269759553 -1</internalNodes>
          <leafValues>
            -7.7338510751724243e-01 3.4378585219383240e-01</leafValues></_>
        <_>
          <internalNodes>
            0 -1 396 -353918205 -2113171513 1219703346 -247484665
            271003681 1076392519 1573614721 -134218018</internalNodes>
          <leafValues>
            -5.3572303056716919e-01 5.0767004489898682e-01</leafValues></_>
        <_>
          <internalNodes>
            0 -1 299 -35128073 -55050241 -131472 -302059726 -688527888
            -319303721 -453645264 -861407610</internalNodes>
          <leafValues>
            -4.8849046230316162e-01 5.1644384860992432e-01</leafValues></_>
        <_>
          <internalNodes>
            0 -1 305 -281022541 -2102746458 -1280384784 -168172914
            -575158907 135117524 -864553776 -990911248</internalNodes>
          <leafValues>
            -5.1038235425949097e-01 4.7825333476066589e-01</leafValues></_>
        <_>
          <internalNodes>
            0 -1 37 -825816058 109195138 -1071513056 -2000230398
            1886216771 1095721090 -783456638 -202905257</internalNodes>
          <leafValues>
            -5.8710473775863647e-01 4.3424797058105469e-01</leafValues></_>
        <_>
          <internalNodes>
            0 -1 20 -1060056944 2025730007 -1659091461 -537300105
            -235899915 -153280325 -201344081 -84675597</internalNodes>
          <leafValues>
            -6.7905932664871216e-01 3.4591996669769287e-01</leafValues></_>
        <_>
          <internalNodes>
            0 -1 63 -655367382 -1157247474 634300082 -1842025792
            -531104185 -410976687 -494408998 -213389465</internalNodes>
          <leafValues>
            -5.3587597608566284e-01 4.5066300034523010e-01</leafValues></_>
        <_>
          <internalNodes>
            0 -1 390 -655383037 914291583 519974438 -1607276546
            1406875704 -2014183433 -964877208 -680264518</internalNodes>
          <leafValues>
            -4.1108858585357666e-01 5.8835369348526001e-01</leafValues></_>
        <_>
          <internalNodes>
            0 -1 141 -18879813 -80750640 1938168698 -554631432
            1084289920 1297510859 -230402800 -100597934</internalNodes>
          <leafValues>
            -5.7755947113037109e-01 3.9647969603538513e-01</leafValues></_>
        <_>
          <internalNodes>
            0 -1 73 -433343069 -2138952728 -1359007950 1059651488
            930282934 752187261 1979709335 -202381609</internalNodes>
          <leafValues>
            -3.8426709175109863e-01 5.8606189489364624e-01</leafValues></_>
        <_>
          <internalNodes>
            0 -1 50 -5505037 515047422 -10 -1525629890 -102970 -25264140
            2013164814 -62658237</internalNodes>
          <leafValues>
            -4.5240837335586548e-01 5.0073003768920898e-01</leafValues></_></weakClassifiers></_>
    <!-- stage 2 -->
    <_>
      <maxWeakCount>10</maxWeakCount>
      <stageThreshold>-1.5893810987472534e+00</stageThreshold>
      <weakClassifiers>
        <_>
          <internalNodes>
            0 -1 302 -134217729 -1073741833 -131650528 -35655860
            -615524871 -20472844 -856174208 -319951512</internalNodes>
          <leafValues>
            -6.4088225364685059e-01 3.4589502215385437e-01</leafValues></_>
        <_>
          <internalNodes>
            0 -1 21 -336600541 36678318 -335599047 -605050690 1432838935
            207531895 1777591735 -67111185</internalNodes>
          <leafValues>
            -4.5167320966720581e-01 5.7090914249420166e-01</leafValues></_>
        <_>
          <internalNodes>
            0 -1 106 576987940 1040185335 1004484437 -11124899
            1608474580 -2504709 -321995013 -17367067</internalNodes>
          <leafValues>
            -5.9728372097015381e-01 4.1323420405387878e-01</leafValues></_>
        <_>
          <internalNodes>
            0 -1 90 -75505001 -763433482 -420601774 -257753426
            -143143936 -629154288 -311440682 -230429114</internalNodes>
          <leafValues>
            -4.0711840987205505e-01 5.4971343278884888e-01</leafValues></_>
        <_>
          <internalNodes>
            0 -1 40 -892632574 34498310 -2146827680 268886534 268911879
            1212616706 1943265668 -202901754</internalNodes>
          <leafValues>
            -5.4008018970489502e-01 4.3304544687271118e-01</leafValues></_>
        <_>
          <internalNodes>
            0 -1 362 -16783445 -1464957974 -476148544 -691084657
            -882937242 -937312022 1582785728 -723519529</internalNodes>
          <leafValues>
            -5.3309184312820435e-01 4.2084541916847229e-01</leafValues></_>
        <_>
          <internalNodes>
            0 -1 165 -710936585 -616770858 -584953291 -82128102
            -80622596 -70985247 1281029208 -32487872</internalNodes>
          <leafValues>
            -5.1918989419937134e-01 3.9804744720458984e-01</leafValues></_>
        <_>
          <internalNodes>
            0 -1 384 -221272301 1649533378 -2147183098 -229910766
            1610813760 562112002 1353918996 -798514486</internalNodes>
          <leafValues>
            -5.1468676328659058e-01 4.3531644344329834e-01</leafValues></_>
        <_>
          <internalNodes>
            0 -1 346 1009746432 356091710 356224281 -1244149319
            467106580 980279377 -345044580 -52429158</internalNodes>
          <leafValues>
            -5.9346532821655273e-01 3.6870250105857849e-01</leafValues></_>
        <_>
          <internalNodes>
            0 -1 62 -71619814 758292783 113480392 537559810 -103986110
            -620150254 -486628882 -213713853</internalNodes>
          <leafValues>
            -5.7393217086791992e-01 3.6089575290679932e-01</leafValues></_></weakClassifiers></_>
    <!-- stage 3 -->
    <_>
      <maxWeakCount>12</maxWeakCount>
      <stageThreshold>-1.7594269514083862e+00</stageThreshold>
      <weakClassifiers>
        <_>
          <internalNodes>
            0 -1 12 738143983 723464187 -1647366361 -1073797354
            1878985711 1809579971 -2134145 -2049</internalNodes>
          <leafValues>
            -6.3457763195037842e-01 2.6984128355979919e-01</leafValues></_>
        <_>
          <internalNodes>
            0 -1 114 -1 -67183105 -67371026 -219221786 -2129931
            -268853411 -121637312 -255461402</internalNodes>
          <leafValues>
            -5.4639732837677002e-01 3.6251223087310791e-01</leafValues></_>
        <_>
          <internalNodes>
            0 -1 394 -960781789 145471150 183379760 -256399043
            1342125316 1079244599 2006435743 -201326625</internalNodes>
          <leafValues>
            -4.3718838691711426e-01 4.6743953227996826e-01</leafValues></_>
        <_>
          <internalNodes>
            0 -1 315 710901755 195461802 -824984976 -838861124
            -1879052549 -1359157268 1499940868 -842007344</internalNodes>
          <leafValues>
            -4.7815898060798645e-01 4.1022637486457825e-01</leafValues></_>
        <_>
          <internalNodes>
            0 -1 92 -562413 -295469533 -86553038 845342268 -9997308
            -814858394 -151519250 -715923889</internalNodes>
          <leafValues>
            -4.3419671058654785e-01 4.5026025176048279e-01</leafValues></_>
        <_>
          <internalNodes>
            0 -1 405 -1058027006 4682528 1691297456 -794039584
            1713606693 214521860 1103675904 -532161277</internalNodes>
          <leafValues>
            -5.8066403865814209e-01 3.1070810556411743e-01</leafValues></_>
        <_>
          <internalNodes>
            0 -1 292 471864320 80083935 -759456647 -1445998625 404599092
            -374343377 515091423 -318784905</internalNodes>
          <leafValues>
            -7.0836800336837769e-01 2.8478533029556274e-01</leafValues></_>
        <_>
          <internalNodes>
            0 -1 29 -360218110 42640327 1120075872 -762584161 1111819844
            44335723 1925923011 -234889034</internalNodes>
          <leafValues>
            -5.3010904788970947e-01 3.7633320689201355e-01</leafValues></_>
        <_>
          <internalNodes>
            0 -1 195 -219946288 2052673840 34656987 1362161689
            -1160093692 -351463040 -792431920 -211627936</internalNodes>
          <leafValues>
            -4.7650712728500366e-01 3.7086135149002075e-01</leafValues></_>
        <_>
          <internalNodes>
            0 -1 70 -1946173521 772456842 -838648446 -421075770
            948927381 1317486834 1931701216 -662712121</internalNodes>
          <leafValues>
            -4.8053702712059021e-01 3.8901275396347046e-01</leafValues></_>
        <_>
          <internalNodes>
            0 -1 318 -1683257125 -1433497688 2142240753 1572858600
            -1354852418 -1897086980 804648088 -1917135812</internalNodes>
          <leafValues>
            -3.9186820387840271e-01 4.7787973284721375e-01</leafValues></_>
        <_>
          <internalNodes>
            0 -1 411 -481302878 -1939158899 1140978194 -287784738
            -1021702368 50572416 1643259089 -792210973</internalNodes>
          <leafValues>
            -5.1427668333053589e-01 3.4982505440711975e-01</leafValues></_></weakClassifiers></_>
    <!-- stage 4 -->
    <_>
      <maxWeakCount>14</maxWeakCount>
      <stageThreshold>-1.4216707944869995e+00</stageThreshold>
      <weakClassifiers>
        <_>
          <internalNodes>
            0 -1 157 541075472 -90657 870825469 -1228865 1369824255
            -17475875 -272712193 -82257</internalNodes>
          <leafValues>
            -7.0280814170837402e-01 1.7683772742748260e-01</leafValues></_>
        <_>
          <internalNodes>
            0 -1 28 -1067283322 1419027761 -121450028 -983133486
            1347803861 1950010035 -22938949 -1835149</internalNodes>
          <leafValues>
            -5.5953401327133179e-01 2.7391517162322998e-01</leafValues></_>
        <_>
          <internalNodes>
            0 -1 389 -336613877 1185144342 720182970 853012223 922440705
            1467348855 -84156790 -201330689</internalNodes>
          <leafValues>
            -3.6679401993751526e-01 4.6350437402725220e-01</leafValues></_>
        <_>
          <internalNodes>
            0 -1 125 -352324233 -135432677 -259331462 -232613646
            -69243295 -1625038838 1945811710 -176949434</internalNodes>
          <leafValues>
            -4.0445336699485779e-01 4.1691511869430542e-01</leafValues></_>
        <_>
          <internalNodes>
            0 -1 349 -571499265 -1258504327 -1376301123 -1077997713
            1827663293 -1082266121 -869315416 -1396708310</internalNodes>
          <leafValues>
            -3.0698809027671814e-01 5.0088703632354736e-01</leafValues></_>
        <_>
          <internalNodes>
            0 -1 11 -269513853 246083498 -294143718 -1987798 2145863367
            1869957119 -536577 -67633154</internalNodes>
          <leafValues>
            -3.5612750053405762e-01 4.6014311909675598e-01</leafValues></_>
        <_>
          <internalNodes>
            0 -1 58 -71306245 1056750334 -1859467798 -268253462
            -295792566 -329236272 -380776854 -187438014</internalNodes>
          <leafValues>
            -4.1917541623115540e-01 3.7772560119628906e-01</leafValues></_>
        <_>
          <internalNodes>
            0 -1 399 -1878282240 269935028 -1341664428 -1001524648
            1445004916 445792345 1254115468 -263460609</internalNodes>
          <leafValues>
            -4.8582097887992859e-01 3.1740525364875793e-01</leafValues></_>
        <_>
          <internalNodes>
            0 -1 136 582368817 -1086853377 1073363731 -1107840461
            1878999037 -285310980 -185457 -289998626</internalNodes>
          <leafValues>
            -3.6415085196495056e-01 4.3144667148590088e-01</leafValues></_>
        <_>
          <internalNodes>
            0 -1 332 -1410371589 1187176142 1775727920 -649921919
            852879751 -1918727934 -1212012864 -1041829154</internalNodes>
          <leafValues>
            -4.1369009017944336e-01 3.8706678152084351e-01</leafValues></_>
        <_>
          <internalNodes>
            0 -1 59 -7372766 -1648186353 -1740178992 304466131 -82960299
            -670531390 -243019641 -144456978</internalNodes>
          <leafValues>
            -4.1325977444648743e-01 3.8612470030784607e-01</leafValues></_>
        <_>
          <internalNodes>
            0 -1 104 1146406228 1012144563 1910774751 -34598499
            -200445312 -241465179 -1436206145 -231033946</internalNodes>
          <leafValues>
            -6.3970822095870972e-01 2.6477223634719849e-01</leafValues></_>
        <_>
          <internalNodes>
            0 -1 321 -31464697 -1702753499 18209114 -100744546
            -256518651 372492307 -15734272 -1568147601</internalNodes>
          <leafValues>
            -4.2028385400772095e-01 3.7351787090301514e-01</leafValues></_>
        <_>
          <internalNodes>
            0 -1 45 -395057654 1690535300 -1609010816 1887797342
            1912795649 -796489727 -1534070573 -147589565</internalNodes>
          <leafValues>
            -4.2088818550109863e-01 3.7857240438461304e-01</leafValues></_></weakClassifiers></_>
    <!-- stage 5 -->
    <_>
      <maxWeakCount>18</maxWeakCount>
      <stageThreshold>-1.6244533061981201e+00</stageThreshold>
      <weakClassifiers>
        <_>
          <internalNodes>
            0 -1 324 -121057064 -35008049 -2129375027 -4067185
            -637410375 -116678518 -576199713 -605311233</internalNodes>
          <leafValues>
            -6.3469028472900391e-01 1.9100266695022583e-01</leafValues></_>
        <_>
          <internalNodes>
            0 -1 19 1481824976 -571154986 298897769 -545569785
            -128876079 -107118591 -377638417 -78439845</internalNodes>
          <leafValues>
            -5.6884211301803589e-01 2.4936212599277496e-01</leafValues></_>
        <_>
          <internalNodes>
            0 -1 103 -217808173 1908442112 -704508637 830473728
            -360326913 -1781555069 -1190188117 818777634</internalNodes>
          <leafValues>
            -3.6243695020675659e-01 3.8563475012779236e-01</leafValues></_>
        <_>
          <internalNodes>
            0 -1 46 -793259896 403886082 272769090 9207944 2116689928
            1345110161 1644824610 -1016897153</internalNodes>
          <leafValues>
            -4.0068513154983521e-01 3.3402085304260254e-01</leafValues></_>
        <_>
          <internalNodes>
            0 -1 196 -663086478 -542482821 -1627721993 2071162365
            -1078538552 -25272496 -556116518 -1156435430</internalNodes>
          <leafValues>
            -3.4286144375801086e-01 3.7993282079696655e-01</leafValues></_>
        <_>
          <internalNodes>
            0 -1 241 1410905525 -573271790 -1254096457 -1123089972
            26295231 -892854119 111356863 932719562</internalNodes>
          <leafValues>
            -3.4087234735488892e-01 3.7833419442176819e-01</leafValues></_>
        <_>
          <internalNodes>
            0 -1 213 -654125616 -604486300 1992195832 -1811980575
            -2045396024 -328876208 -2040738406 -1683286881</internalNodes>
          <leafValues>
            -2.5486534833908081e-01 5.1617431640625000e-01</leafValues></_>
        <_>
          <internalNodes>
            0 -1 17 -810842071 163393322 -1141380482 2000645773
            1878465923 369065844 -939674371 -302004533</internalNodes>
          <leafValues>
            -3.1022986769676208e-01 4.0670743584632874e-01</leafValues></_>
        <_>
          <internalNodes>
            0 -1 304 -1715972621 -1970361120 1006628853 2139749552
            -1399992646 -1939562500 262952185 -538983220</internalNodes>
          <leafValues>
            -3.1446126103401184e-01 4.2641305923461914e-01</leafValues></_>
        <_>
          <internalNodes>
            0 -1 375 -218199032 -604205681 1065332461 2008526847
            1996221952 -1780122755 -1225328744 -1175716677</internalNodes>
          <leafValues>
            -2.4666258692741394e-01 4.8048785328865051e-01</leafValues></_>
        <_>
          <internalNodes>
            0 -1 57 -71575358 -250158324 352342310 201510938 -375879152
            -321912818 -678319122 -1291327669</internalNodes>
          <leafValues>
            -4.1909855604171753e-01 2.9303428530693054e-01</leafValues></_>
        <_>
          <internalNodes>
            0 -1 345 -768738782 941330213 1056894811 2134862198
            1451194277 1607982973 2037857450 -1342177282</internalNodes>
          <leafValues>
            -3.2081490755081177e-01 3.8877967000007629e-01</leafValues></_>
        <_>
          <internalNodes>
            0 -1 199 1962195474 2036244635 -1669003590 902430844
            2047577020 -75464536 -79361350 1870703246</internalNodes>
          <leafValues>
            -3.9166888594627380e-01 3.1836482882499695e-01</leafValues></_>
        <_>
          <internalNodes>
            0 -1 356 1642302183 1296863380 805519696 -909622830
            -643186258 1459669121 1367363584 -2049973237</internalNodes>
          <leafValues>
            -4.2498311400413513e-01 2.8701135516166687e-01</leafValues></_>
        <_>
          <internalNodes>
            0 -1 327 -1271673356 -104965856 -2175750 -583324576
            -1357345119 -1479458832 645903562 -1380759413</internalNodes>
          <leafValues>
            -2.5366899371147156e-01 4.9345842003822327e-01</leafValues></_>
        <_>
          <internalNodes>
            0 -1 311 -131021680 1572765664 -16875533 -1678490516
            -2097162248 -1342390929 -1642659958 -1955657991</internalNodes>
          <leafValues>
            -2.7148857712745667e-01 4.4674134254455566e-01</leafValues></_>
        <_>
          <internalNodes>
            0 -1 187 -1007145784 2007656956 1014983797 -6724495
            -1099773968 -1155090 -42959142 -1421672312</internalNodes>
          <leafValues>
            -3.2710611820220947e-01 4.1137710213661194e-01</leafValues></_>
        <_>
          <internalNodes>
            0 -1 43 -259728550 -1325789155 285227992 1031816344
            -1844609010 -339826150 -1716942772 1862889828</internalNodes>
          <leafValues>
            -5.6992411613464355e-01 2.4358324706554413e-01</leafValues></_></weakClassifiers></_>
    <!-- stage 6 -->
    <_>
      <maxWeakCount>17</maxWeakCount>
      <stageThreshold>-1.6557315587997437e+00</stageThreshold>
      <weakClassifiers>
        <_>
          <internalNodes>
            0 -1 281 2145375223 -1074400452 -34368514 -299262042
            -286008323 -29959539 -1394092844 -859445212</internalNodes>
          <leafValues>
            -6.3075655698776245e-01 8.0238729715347290e-02</leafValues></_>
        <_>
          <internalNodes>
            0 -1 322 905953079 -1109663782 -1562492963 -1109408801
            734342847 -1418151547 747383951 1066388367</internalNodes>
          <leafValues>
            -4.1596040129661560e-01 2.8791490197181702e-01</leafValues></_>
        <_>
          <internalNodes>
            0 -1 117 -69239297 -57640015 219925338 455268210 -910274572
            -67475332 -68018868 -27206142</internalNodes>
          <leafValues>
            -4.4221669435501099e-01 2.6361075043678284e-01</leafValues></_>
        <_>
          <internalNodes>
            0 -1 101 -852413124 -1529629320 726805886 768349145
            -641151106 -54474558 503847454 -553906019</internalNodes>
          <leafValues>
            -4.0158939361572266e-01 3.0581998825073242e-01</leafValues></_>
        <_>
          <internalNodes>
            0 -1 3 -374341701 686345898 782446386 -1620276480 -944775745
            1336129527 400555967 -740829321</internalNodes>
          <leafValues>
            -3.0396464467048645e-01 3.9563524723052979e-01</leafValues></_>
        <_>
          <internalNodes>
            0 -1 334 -1953761349 -1430779802 2146351089 -1108001624
            -1245794838 -1430323216 74418171 -841226832</internalNodes>
          <leafValues>
            -2.9076695442199707e-01 4.1424053907394409e-01</leafValues></_>
        <_>
          <internalNodes>
            0 -1 370 -135276046 -1062965596 -142606883 -55705663
            -67174735 -1432004616 -34098989 -846215253</internalNodes>
          <leafValues>
            -2.6340472698211670e-01 4.6932730078697205e-01</leafValues></_>
        <_>
          <internalNodes>
            0 -1 53 -1233141037 -627860558 -788489869 270681284
            -939199396 2021796363 -607983249 -16253418</internalNodes>
          <leafValues>
            -3.7016209959983826e-01 3.3090737462043762e-01</leafValues></_>
        <_>
          <internalNodes>
            0 -1 263 -753227632 -255305640 -451762808 1439716060
            -1690695488 -1442281336 -554648885 -1424357376</internalNodes>
          <leafValues>
            -3.3489912748336792e-01 3.6056756973266602e-01</leafValues></_>
        <_>
          <internalNodes>
            0 -1 13 148899008 193170371 -2079903675 -918482688
            1485308692 -53608309 -120640609 -268962895</internalNodes>
          <leafValues>
            -6.6376441717147827e-01 1.9251021742820740e-01</leafValues></_>
        <_>
          <internalNodes>
            0 -1 169 -610903592 -1692458918 -1870605871 1342347275
            -434503852 -594017768 -615456072 -11351550</internalNodes>
          <leafValues>
            -4.0113836526870728e-01 3.2161271572113037e-01</leafValues></_>
        <_>
          <internalNodes>
            0 -1 392 -760224981 -2011656191 721654029 -734560229
            688602368 1746637683 -1417576054 -549723751</internalNodes>
          <leafValues>
            -3.5662046074867249e-01 3.6089482903480530e-01</leafValues></_>
        <_>
          <internalNodes>
            0 -1 304 -1676020741 -1131467528 -1111560195 -557514756
            -1399025992 -1369169926 -1658396674 -872430392</internalNodes>
          <leafValues>
            -2.7267709374427795e-01 4.4486379623413086e-01</leafValues></_>
        <_>
          <internalNodes>
            0 -1 38 -363863930 1255199976 268714240 919454512 538874512
            -622100475 -255655868 -44830137</internalNodes>
          <leafValues>
            -3.7773346900939941e-01 3.5715276002883911e-01</leafValues></_>
        <_>
          <internalNodes>
            0 -1 129 -1533893072 -1530236687 621875325 -20375402
            -1442456188 -1364318053 768311177 -55881436</internalNodes>
          <leafValues>
            -4.2237740755081177e-01 2.9536488652229309e-01</leafValues></_>
        <_>
          <internalNodes>
            0 -1 83 1187785012 783831218 1560960475 1583120788
            -2019985163 -23363446 2114125232 -472634876</internalNodes>
          <leafValues>
            -5.0838041305541992e-01 2.5539860129356384e-01</leafValues></_>
        <_>
          <internalNodes>
            0 -1 60 -1955653261 429597833 -1694425870 531675022
            -1111603376 -90570696 1518653982 -819466782</internalNodes>
          <leafValues>
            -3.5732361674308777e-01 3.7343505024909973e-01</leafValues></_></weakClassifiers></_>
    <!-- stage 7 -->
    <_>
      <maxWeakCount>18</maxWeakCount>
      <stageThreshold>-1.2349673509597778e+00</stageThreshold>
      <weakClassifiers>
        <_>
          <internalNodes>
            0 -1 354 -540016641 -1093512997 1803758044 -440418169
            -118535489 -342240327 -1935450928 -843058982</internalNodes>
          <leafValues>
            -5.0405770540237427e-01 1.8151815235614777e-01</leafValues></_>
        <_>
          <internalNodes>
            0 -1 337 -161 -835715 -285212769 -38797377 -763461887
            2105530231 -1099450492 -67113089</internalNodes>
          <leafValues>
            -2.7541995048522949e-01 3.9264410734176636e-01</leafValues></_>
        <_>
          <internalNodes>
            0 -1 197 -469262537 2127091935 1914212511 1414574116
            -749009700 -1161364746 -604308840 -96403904</internalNodes>
          <leafValues>
            -3.7177634239196777e-01 3.0604249238967896e-01</leafValues></_>
        <_>
          <internalNodes>
            0 -1 107 541074740 2128041389 886055285 824117244 1854294525
            1787318923 -1009942536 1019292692</internalNodes>
          <leafValues>
            -5.1688814163208008e-01 1.8253985047340393e-01</leafValues></_>
        <_>
          <internalNodes>
            0 -1 21 -877673693 53455790 -67178963 -67130332 1601161511
            1834938359 -1006925933 -336857921</internalNodes>
          <leafValues>
            -2.8814366459846497e-01 3.5009694099426270e-01</leafValues></_>
        <_>
          <internalNodes>
            0 -1 335 -387979637 -1464949645 1688652369 -730073502
            -681293557 -2010140081 -455146431 -999039557</internalNodes>
          <leafValues>
            -3.7938433885574341e-01 2.5069743394851685e-01</leafValues></_>
        <_>
          <internalNodes>
            0 -1 93 -619192665 459964494 -232588182 274726978
            -1953926836 -334763207 1515166542 -430442638</internalNodes>
          <leafValues>
            -4.1021955013275146e-01 2.4302308261394501e-01</leafValues></_>
        <_>
          <internalNodes>
            0 -1 160 -162144361 -2009800458 647158044 -354758532
            -1203374220 -1190065756 -1157806576 -992953536</internalNodes>
          <leafValues>
            -4.9884375929832458e-01 2.0347358286380768e-01</leafValues></_>
        <_>
          <internalNodes>
            0 -1 386 -767614428 813910297 -935294961 404523202
            -506649846 142795303 -1974851281 -1440628165</internalNodes>
          <leafValues>
            -4.2480731010437012e-01 2.1700869500637054e-01</leafValues></_>
        <_>
          <internalNodes>
            0 -1 183 873608276 -1261664117 1978268215 -1323691113
            -1169067338 -1204256653 1510456477 -190975794</internalNodes>
          <leafValues>
            -4.4458299875259399e-01 2.2523529827594757e-01</leafValues></_>
        <_>
          <internalNodes>
            0 -1 2 -443616638 172360676 1885559874 -1114758136
            -904686856 1330097025 1668280679 1392245863</internalNodes>
          <leafValues>
            -4.5232668519020081e-01 2.1998640894889832e-01</leafValues></_>
        <_>
          <internalNodes>
            0 -1 239 1758368788 1850770319 486620026 491225625
            1235292982 -326966822 427826171 778097635</internalNodes>
          <leafValues>
            -4.6014624834060669e-01 2.1392412483692169e-01</leafValues></_>
        <_>
          <internalNodes>
            0 -1 120 853199425 1330839850 -158043848 448822362
            -762533312 -1433268890 -251069610 -1083965470</internalNodes>
          <leafValues>
            -3.5401904582977295e-01 2.9943719506263733e-01</leafValues></_>
        <_>
          <internalNodes>
            0 -1 380 -1409672261 -1633152504 -1316978603 -1751330728
            -1274459925 -1365867984 -1549319879 -597189491</internalNodes>
          <leafValues>
            -3.1220674514770508e-01 3.3781075477600098e-01</leafValues></_>
        <_>
          <internalNodes>
            0 -1 267 -1173691139 -1192738788 -492629729 -1352690640
            -1438402308 -24603996 -89705498 -1950851912</internalNodes>
          <leafValues>
            -3.6942800879478455e-01 2.7408558130264282e-01</leafValues></_>
        <_>
          <internalNodes>
            0 -1 39 -700725706 1477235202 -736984002 -1474497908
            -213513330 1501561216 -1466962162 790826619</internalNodes>
          <leafValues>
            -3.4852343797683716e-01 2.9788503050804138e-01</leafValues></_>
        <_>
          <internalNodes>
            0 -1 409 -324015709 -2145836363 41992192 1892146068
            -783129289 1225449652 1995060388 -267650941</internalNodes>
          <leafValues>
            -4.0327286720275879e-01 2.6364898681640625e-01</leafValues></_>
        <_>
          <internalNodes>
            0 -1 172 -530591098 -1920727071 -548200990 -639974756
            -388104820 679985808 -500072822 -462095608</internalNodes>
          <leafValues>
            -3.3844974637031555e-01 3.3053979277610779e-01</leafValues></_></weakClassifiers></_>
    <!-- stage 8 -->
    <_>
      <maxWeakCount>20</maxWeakCount>
      <stageThreshold>-1.6398904323577881e+00</stageThreshold>
      <weakClassifiers>
        <_>
          <internalNodes>
            0 -1 256 1978974141 2144394187 -1684008449 -1110435617
            2072325309 -370617120 549716623 500532875</internalNodes>
          <leafValues>
            -5.4094749689102173e-01 6.6422015428543091e-02</leafValues></_>
        <_>
          <internalNodes>
            0 -1 27 -823996458 429086164 -1684746889 1967636895
            1401210833 -357783362 -931169 -137374153</internalNodes>
          <leafValues>
            -3.3130019903182983e-01 2.7765473723411560e-01</leafValues></_>
        <_>
          <internalNodes>
            0 -1 233 -149961505 391308170 -510485538 -13728870
            -751838735 2122371291 829446224 -319233592</internalNodes>
          <leafValues>
            -3.8440144062042236e-01 2.4188217520713806e-01</leafValues></_>
        <_>
          <internalNodes>
            0 -1 384 -185620481 -36997 -1093730786 -231112769 -511707899
            369065819 -230801920 -1286608209</internalNodes>
          <leafValues>
            -2.4003221094608307e-01 3.8358968496322632e-01</leafValues></_>
        <_>
          <internalNodes>
            0 -1 173 1559670688 2002097565 -179722349 961347594
            -358891853 -209481312 464718523 2143891374</internalNodes>
          <leafValues>
            -3.5711318254470825e-01 2.4951462447643280e-01</leafValues></_>
        <_>
          <internalNodes>
            0 -1 124 -243044832 -1567539173 -500502502 537009167
            2114611714 -1476327420 -121067012 1929902867</internalNodes>
          <leafValues>
            -4.6052375435829163e-01 2.1493084728717804e-01</leafValues></_>
        <_>
          <internalNodes>
            0 -1 317 -1873649168 -1400721312 142775760 1911037072
            -1550139141 -1431514472 692613372 -1970284132</internalNodes>
          <leafValues>
            -3.8762426376342773e-01 2.4381519854068756e-01</leafValues></_>
        <_>
          <internalNodes>
            0 -1 7 -2034225612 -1466316551 264448315 790365445
            -666291431 -342849352 -1664214962 -1455329043</internalNodes>
          <leafValues>
            -5.4245692491531372e-01 1.8594537675380707e-01</leafValues></_>
        <_>
          <internalNodes>
            0 -1 381 -338760599 -1071617104 -554320431 -538707174
            686608267 -869335186 -461904688 -980432993</internalNodes>
          <leafValues>
            -2.7650380134582520e-01 3.4050664305686951e-01</leafValues></_>
        <_>
          <internalNodes>
            0 -1 108 -100529136 1040946216 1479441885 1408291269
            -454876955 -339266942 1836743037 -547151356</internalNodes>
          <leafValues>
            -3.3909416198730469e-01 2.9218876361846924e-01</leafValues></_>
        <_>
          <internalNodes>
            0 -1 234 -669510512 -46247787 2029162845 1438269844
            -1694103320 -1022827740 -2122304518 -49104328</internalNodes>
          <leafValues>
            -3.3173283934593201e-01 2.7839851379394531e-01</leafValues></_>
        <_>
          <internalNodes>
            0 -1 391 2013764610 878039047 -247105062 -1596006329
            304346045 -626374523 -1995982161 953220107</internalNodes>
          <leafValues>
            -3.0253693461418152e-01 3.1653359532356262e-01</leafValues></_>
        <_>
          <internalNodes>
            0 -1 42 -720261325 -674041193 -1265299132 -1895804272
            -779887638 -2087796725 -320825208 -1102612909</internalNodes>
          <leafValues>
            -3.1680655479431152e-01 3.0857360363006592e-01</leafValues></_>
        <_>
          <internalNodes>
            0 -1 244 608439092 2113147219 -1627339307 -1961557750
            1885371127 931137673 983964343 -1228141778</internalNodes>
          <leafValues>
            -5.9007126092910767e-01 1.6266247630119324e-01</leafValues></_>
        <_>
          <internalNodes>
            0 -1 344 -652481276 408450079 -1866097388 -1885503281
            1250693564 -1188200056 -968676472 -1945311093</internalNodes>
          <leafValues>
            -3.4836328029632568e-01 2.6874971389770508e-01</leafValues></_>
        <_>
          <internalNodes>
            0 -1 330 -2042125221 -1576389685 17243663 -1615517686
            294490504 -1430662504 1076035912 -843328329</internalNodes>
          <leafValues>
            -3.1614738702774048e-01 3.0667805671691895e-01</leafValues></_>
        <_>
          <internalNodes>
            0 -1 308 -2133930848 -52658293 -120073313 -1108683631
            71332181 -1021067031 -1413449308 -1398385088</internalNodes>
          <leafValues>
            -3.6974844336509705e-01 2.6980593800544739e-01</leafValues></_>
        <_>
          <internalNodes>
            0 -1 67 1673135114 583156104 -197908318 678671174 1329160198
            135143428 -152664108 358871631</internalNodes>
          <leafValues>
            -5.6326663494110107e-01 1.7550341784954071e-01</leafValues></_>
        <_>
          <internalNodes>
            0 -1 142 -701316975 -654442110 1368593725 1029279862
            -218037880 -339336576 -570158356 -98937314</internalNodes>
          <leafValues>
            -2.9740872979164124e-01 3.2725507020950317e-01</leafValues></_>
        <_>
          <internalNodes>
            0 -1 171 -2131475535 211550385 -510266203 -1160761205
            -2010993775 -1417607772 -635063316 -1147644000</internalNodes>
          <leafValues>
            -3.7612837553024292e-01 2.6063415408134460e-01</leafValues></_></weakClassifiers></_>
    <!-- stage 9 -->
    <_>
      <maxWeakCount>25</maxWeakCount>
      <stageThreshold>-1.3205214738845825e+00</stageThreshold>
      <weakClassifiers>
        <_>
          <internalNodes>
            0 -1 100 -237764609 -677780491 -2007090625 -1387006755
            -266842691 -2637425 -1966986726 -1065985</internalNodes>
          <leafValues>
            -3.9392453432083130e-01 2.3133236169815063e-01</leafValues></_>
        <_>
          <internalNodes>
            0 -1 242 1084286128 -1921115437 841039581 -83377273 45170996
            -1165352830 678084867 -591459921</internalNodes>
          <leafValues>
            -5.6975412368774414e-01 1.3370922207832336e-01</leafValues></_>
        <_>
          <internalNodes>
            0 -1 62 -237822149 -1356263281 1086209187 35689263 -91535840
            -11594930 -268830209 -164369953</internalNodes>
          <leafValues>
            -3.2127350568771362e-01 2.6987668871879578e-01</leafValues></_>
        <_>
          <internalNodes>
            0 -1 350 -1874183944 -1648844116 -551660592 -543397124
            -1423527976 -1395908194 390120076 -2013134812</internalNodes>
          <leafValues>
            -2.8888100385665894e-01 2.7496811747550964e-01</leafValues></_>
        <_>
          <internalNodes>
            0 -1 285 -1120944655 -1143450384 2059335281 491417176
            -1353384264 -1380155460 1042382588 -1615864656</internalNodes>
          <leafValues>
            -2.7327400445938110e-01 2.9657408595085144e-01</leafValues></_>
        <_>
          <internalNodes>
            0 -1 10 183810 -640548513 -787607401 -178306405 853871859
            -1021196272 -2050243671 -873731081</internalNodes>
          <leafValues>
            -3.7465599179267883e-01 2.1213990449905396e-01</leafValues></_>
        <_>
          <internalNodes>
            0 -1 181 2021179188 -1143938410 1405192375 -1627188903
            2123209653 -1128209382 579480766 -1173575464</internalNodes>
          <leafValues>
            -3.1058052182197571e-01 2.5227651000022888e-01</leafValues></_>
        <_>
          <internalNodes>
            0 -1 243 -860837888 -1600633756 -763248149 -2005360114
            2126532789 -257193519 -1339827313 -1475839488</internalNodes>
          <leafValues>
            -3.5414043068885803e-01 2.3950473964214325e-01</leafValues></_>
        <_>
          <internalNodes>
            0 -1 408 -456949061 -1903265494 -1023049056 -808183782
            416227001 -1966896242 84344900 -857744257</internalNodes>
          <leafValues>
            -3.1906959414482117e-01 2.6677498221397400e-01</leafValues></_>
        <_>
          <internalNodes>
            0 -1 188 -621481763 -520759985 1091043797 2130223314
            -1079760076 -356416101 1125074180 -663734672</internalNodes>
          <leafValues>
            -4.8867309093475342e-01 1.7534296214580536e-01</leafValues></_>
        <_>
          <internalNodes>
            0 -1 314 1862327472 1593663081 -574894153 -584371659
            -2078750508 -250937602 -1173772289 -1148205893</internalNodes>
          <leafValues>
            -1.8197658658027649e-01 4.6249893307685852e-01</leafValues></_>
        <_>
          <internalNodes>
            0 -1 217 -647032580 -1008855090 1996818904 2005871054
            -1284977832 -394180824 1932282857 -16101346</internalNodes>
          <leafValues>
            -2.8833496570587158e-01 2.9039955139160156e-01</leafValues></_>
        <_>
          <internalNodes>
            0 -1 340 -441463157 -1666384082 -1493220244 -117489701
            2121205260 -1672937631 1828171306 -799025457</internalNodes>
          <leafValues>
            -2.5807294249534607e-01 3.1191882491111755e-01</leafValues></_>
        <_>
          <internalNodes>
            0 -1 144 -207665215 -1116012275 -780121221 419844375
            -1063649216 -1411688444 -868820774 -77432253</internalNodes>
          <leafValues>
            -3.0098679661750793e-01 2.7478262782096863e-01</leafValues></_>
        <_>
          <internalNodes>
            0 -1 287 -284462872 -1039515292 102359499 -1107813429
            464636690 -2019520470 1913741392 -2078543077</internalNodes>
          <leafValues>
            -4.0538233518600464e-01 2.1537266671657562e-01</leafValues></_>
        <_>
          <internalNodes>
            0 -1 393 -1829257694 -1698974787 1056922153 -356553297
            791617449 -1115701256 -1484800850 -923539013</internalNodes>
          <leafValues>
            -2.7510440349578857e-01 3.0925205349922180e-01</leafValues></_>
        <_>
          <internalNodes>
            0 -1 79 541076340 1842989078 183504861 530325632 1502687860
            -108476278 -2102654888 1748654145</internalNodes>
          <leafValues>
            -5.5810576677322388e-01 1.3942225277423859e-01</leafValues></_>
        <_>
          <internalNodes>
            0 -1 201 -332756208 -2144554607 1044601281 -1736649419
            -227476339 -1277818676 -1221215329 -1465232028</internalNodes>
          <leafValues>
            -3.5142123699188232e-01 2.3086433112621307e-01</leafValues></_>
        <_>
          <internalNodes>
            0 -1 228 -393456392 -2126485952 2039617982 -979843183
            -1123885315 -1114755055 21133767 -1976950760</internalNodes>
          <leafValues>
            -3.2230955362319946e-01 2.6117464900016785e-01</leafValues></_>
        <_>
          <internalNodes>
            0 -1 168 -76219344 -540127092 -1858054027 1242061403
            -902801260 -625442719 1258352912 -636302734</internalNodes>
          <leafValues>
            -3.9531734585762024e-01 2.1454243361949921e-01</leafValues></_>
        <_>
          <internalNodes>
            0 -1 32 1815752658 1364439408 -247065870 9540368 1898973749
            -80117608 -1417427818 -1225637808</internalNodes>
          <leafValues>
            -4.1713443398475647e-01 2.0959499478340149e-01</leafValues></_>
        <_>
          <internalNodes>
            0 -1 232 -736324183 2041515828 -121634829 1067404781
            -602751846 -92496483 -1111695365 -1079310089</internalNodes>
          <leafValues>
            -1.9252957403659821e-01 4.7480550408363342e-01</leafValues></_>
        <_>
          <internalNodes>
            0 -1 45 -659118522 -221024761 -1468306124 -797766914
            1977079622 369098567 -1358955327 -188228001</internalNodes>
          <leafValues>
            -2.8906640410423279e-01 2.9564210772514343e-01</leafValues></_>
        <_>
          <internalNodes>
            0 -1 347 -293613295 -1864843861 1671953701 -206637453
            870262734 -545292291 897366664 -788539910</internalNodes>
          <leafValues>
            -2.2878526151180267e-01 3.9276051521301270e-01</leafValues></_>
        <_>
          <internalNodes>
            0 -1 230 -668239137 1970803534 553785523 -829508194
            177252962 -1632042510 -542515076 -1943226768</internalNodes>
          <leafValues>
            -4.4714358448982239e-01 1.9925631582736969e-01</leafValues></_></weakClassifiers></_>
    <!-- stage 10 -->
    <_>
      <maxWeakCount>26</maxWeakCount>
      <stageThreshold>-1.4094141721725464e+00</stageThreshold>
      <weakClassifiers>
        <_>
          <internalNodes>
            0 -1 403 -588262949 -1906327414 -1874754085 -682643269
            -1983256176 -1448886112 595810468 -34605261</internalNodes>
          <leafValues>
            -4.4102424383163452e-01 1.8401800096035004e-01</leafValues></_>
        <_>
          <internalNodes>
            0 -1 31 -15548614 730502030 850136400 -1968131592 1343867082
            1530074891 -1127677800 -5276621</internalNodes>
          <leafValues>
            -4.1445341706275940e-01 2.1157702803611755e-01</leafValues></_>
        <_>
          <internalNodes>
            0 -1 0 -301990913 716111588 2147407355 -819268630 1736440759
            1279262079 930348163 -67109637</internalNodes>
          <leafValues>
            -2.3841871321201324e-01 3.8918244838714600e-01</leafValues></_>
        <_>
          <internalNodes>
            0 -1 360 -18886166 -328600118 -703049712 -312748558
            1326392070 -825230910 1707495495 -724047497</internalNodes>
          <leafValues>
            -3.7938275933265686e-01 2.2071713209152222e-01</leafValues></_>
        <_>
          <internalNodes>
            0 -1 170 -75538885 -72675981 2013165115 1365669051
            -315208632 -25203402 -1032454 -368928166</internalNodes>
          <leafValues>
            -2.5946301221847534e-01 3.1163576245307922e-01</leafValues></_>
        <_>
          <internalNodes>
            0 -1 320 -1697637359 -86119971 -1341890561 -70613525
            346691588 -119340379 -1945855444 -1430774412</internalNodes>
          <leafValues>
            -3.6677590012550354e-01 2.2105742990970612e-01</leafValues></_>
        <_>
          <internalNodes>
            0 -1 111 844562395 -2012300552 -2120560146 -721812482
            951101538 -68177575 -74902684 -565117872</internalNodes>
          <leafValues>
            -4.0807890892028809e-01 2.1789427101612091e-01</leafValues></_>
        <_>
          <internalNodes>
            0 -1 374 -407335081 -818776613 -1358954601 1714027507
            -1099452608 2061336445 -1409815912 -119017537</internalNodes>
          <leafValues>
            -2.5098156929016113e-01 3.4447216987609863e-01</leafValues></_>
        <_>
          <internalNodes>
            0 -1 286 -573049089 -1475637022 -1221395971 -1525813826
            188740747 -1957842508 1426621712 -572535684</internalNodes>
          <leafValues>
            -2.9787755012512207e-01 2.8529193997383118e-01</leafValues></_>
        <_>
          <internalNodes>
            0 -1 22 -275780569 164053826 1755292728 1540301289
            -209726382 413696937 1770222997 -940049671</internalNodes>
          <leafValues>
            -3.0535730719566345e-01 2.7512925863265991e-01</leafValues></_>
        <_>
          <internalNodes>
            0 -1 89 -67426793 -275287131 -1878805998 458650459 -41865204
            -624279505 -710293362 -282962162</internalNodes>
          <leafValues>
            -2.7808573842048645e-01 2.8999093174934387e-01</leafValues></_>
        <_>
          <internalNodes>
            0 -1 72 1223667185 -1076665402 898863633 463299337
            1567619176 1778993217 1781527466 757952046</internalNodes>
          <leafValues>
            -3.0790722370147705e-01 2.7502253651618958e-01</leafValues></_>
        <_>
          <internalNodes>
            0 -1 52 -263228894 -1845140606 -368655774 1888131782
            -262733243 -938835879 -662666144 -160173714</internalNodes>
          <leafValues>
            -3.5556760430335999e-01 2.3836252093315125e-01</leafValues></_>
        <_>
          <internalNodes>
            0 -1 175 1154484788 47235963 558635901 555352429 -304605891
            -645869328 495727679 1052810178</internalNodes>
          <leafValues>
            -5.6477773189544678e-01 1.5856197476387024e-01</leafValues></_>
        <_>
          <internalNodes>
            0 -1 184 -1950462864 -168105272 344359373 -1793214363
            -293598180 -880226095 -1081804105 -1909283744</internalNodes>
          <leafValues>
            -3.4231871366500854e-01 2.3097056150436401e-01</leafValues></_>
        <_>
          <internalNodes>
            0 -1 353 -157605147 -1328889584 2047132684 -975454196
            -74997593 -360238944 635555040 -565448022</internalNodes>
          <leafValues>
            -2.9742547869682312e-01 2.8571471571922302e-01</leafValues></_>
        <_>
          <internalNodes>
            0 -1 78 -517566541 -1603863120 -33918637 2075684644
            -344466487 477913079 1602029051 -630513933</internalNodes>
          <leafValues>
            -2.5322556495666504e-01 3.4423890709877014e-01</leafValues></_>
        <_>
          <internalNodes>
            0 -1 373 -1088227406 -1414647818 -134265227 -25175564
            -529683673 -298924698 1035456689 -606339873</internalNodes>
          <leafValues>
            -2.3929455876350403e-01 3.7691092491149902e-01</leafValues></_>
        <_>
          <internalNodes>
            0 -1 229 -19248080 -145803930 -16395 -10518809 -1225605315
            1291403188 -1100163655 -1153485122</internalNodes>
          <leafValues>
            -2.2081394493579865e-01 3.9784237742424011e-01</leafValues></_>
        <_>
          <internalNodes>
            0 -1 51 324747435 1490158431 -703331872 -357529030
            -1449359464 -593823556 -1970744228 -46930577</internalNodes>
          <leafValues>
            -3.4733164310455322e-01 2.6279801130294800e-01</leafValues></_>
        <_>
          <internalNodes>
            0 -1 193 2046906608 -739768146 -16892427 424483957
            -1123752880 -35689043 -1370136584 -1622450525</internalNodes>
          <leafValues>
            -2.4188715219497681e-01 3.7126132845878601e-01</leafValues></_>
        <_>
          <internalNodes>
            0 -1 261 -863556400 -2137983541 822457303 224207319
            2126521073 -213482870 -1304288445 -1129846460</internalNodes>
          <leafValues>
            -3.4530299901962280e-01 2.7136054635047913e-01</leafValues></_>
        <_>
          <internalNodes>
            0 -1 401 -391434206 746901682 1897124145 -706944832 2388500
            549511177 -2005138906 -794435442</internalNodes>
          <leafValues>
            -4.0386363863945007e-01 2.2924156486988068e-01</leafValues></_>
        <_>
          <internalNodes>
            0 -1 250 1679521691 -1368700592 1224842228 -1376977714
            -1972129125 2081063725 1363372065 -2072188984</internalNodes>
          <leafValues>
            -4.5293211936950684e-01 1.9719439744949341e-01</leafValues></_>
        <_>
          <internalNodes>
            0 -1 364 -1902704039 -254456225 843768531 -615415589
            -1147966143 2015526927 -1190468700 -1167400591</internalNodes>
          <leafValues>
            -3.0885869264602661e-01 2.9479855298995972e-01</leafValues></_>
        <_>
          <internalNodes>
            0 -1 207 -1659365772 948466203 -1777593381 -1945412671
            -933190792 -1098186696 2114886418 -1911938768</internalNodes>
          <leafValues>
            -4.1234111785888672e-01 2.2284659743309021e-01</leafValues></_></weakClassifiers></_>
    <!-- stage 11 -->
    <_>
      <maxWeakCount>24</maxWeakCount>
      <stageThreshold>-1.4241623878479004e+00</stageThreshold>
      <weakClassifiers>
        <_>
          <internalNodes>
            0 -1 23 -361501974 173271814 -321257167 -6346877 1833649079
            1590870154 -607051161 -201328657</internalNodes>
          <leafValues>
            -4.8569548130035400e-01 7.6859161257743835e-02</leafValues></_>
        <_>
          <internalNodes>
            0 -1 333 -16122381 -1943089744 1073741819 -546443356
            -1078284549 -1360838660 -1667631387 -573580312</internalNodes>
          <leafValues>
            -2.6893752813339233e-01 3.2522380352020264e-01</leafValues></_>
        <_>
          <internalNodes>
            0 -1 385 -134222057 1736027887 -1426129281 -352321814
            -1879235281 2105507703 -1023694331 -26222849</internalNodes>
          <leafValues>
            -1.9704946875572205e-01 3.9374220371246338e-01</leafValues></_>
        <_>
          <internalNodes>
            0 -1 33 -1204621964 1659941116 -2481188 -1176709368
            -539672572 1026132909 -821436196 2071558967</internalNodes>
          <leafValues>
            -4.9528831243515015e-01 1.5687084197998047e-01</leafValues></_>
        <_>
          <internalNodes>
            0 -1 289 -1256308875 -1298368505 -1014250021 -111290556
            -2083570439 -578232000 -129281287 -1426308064</internalNodes>
          <leafValues>
            -3.8351607322692871e-01 1.9645369052886963e-01</leafValues></_>
        <_>
          <internalNodes>
            0 -1 95 -1422918093 -1343582559 -71582607 -1113051392
            -809871435 -1209630767 -1353715903 -827099565</internalNodes>
          <leafValues>
            -2.3568825423717499e-01 3.1763240694999695e-01</leafValues></_>
        <_>
          <internalNodes>
            0 -1 189 -1156865813 -1693642418 1174476110 -823588306
            -1683472283 -1417999827 -122428192 -532698321</internalNodes>
          <leafValues>
            -3.4099096059799194e-01 2.3272041976451874e-01</leafValues></_>
        <_>
          <internalNodes>
            0 -1 65 354651946 51095843 -1780556622 539410842 -2100598236
            1667940936 -1273633769 1462232519</internalNodes>
          <leafValues>
            -5.1376855373382568e-01 1.5159934759140015e-01</leafValues></_>
        <_>
          <internalNodes>
            0 -1 284 2138777117 -1845443040 -883427763 -599243044
            1308968182 -1960647024 451070140 -865043452</internalNodes>
          <leafValues>
            -4.7039005160331726e-01 1.4071351289749146e-01</leafValues></_>
        <_>
          <internalNodes>
            0 -1 77 1499770385 1016908167 -1740632097 525412004
            -120546338 -1169109626 2022236507 753477696</internalNodes>
          <leafValues>
            -3.2203653454780579e-01 2.4705836176872253e-01</leafValues></_>
        <_>
          <internalNodes>
            0 -1 412 1862179579 -370413845 -1363274149 -486707830
            -436256837 -2130812989 -2078476880 -174065669</internalNodes>
          <leafValues>
            -2.5310680270195007e-01 3.3558130264282227e-01</leafValues></_>
        <_>
          <internalNodes>
            0 -1 88 -698947030 -635441819 -555748904 -164684233
            -359364608 -595730617 -1232616698 -14426378</internalNodes>
          <leafValues>
            -2.6761090755462646e-01 3.0723446607589722e-01</leafValues></_>
        <_>
          <internalNodes>
            0 -1 198 -1999100876 209745592 -418136091 -542594616
            -1616858167 -1151553021 -956172264 -1972479232</internalNodes>
          <leafValues>
            -4.0761104226112366e-01 1.9395722448825836e-01</leafValues></_>
        <_>
          <internalNodes>
            0 -1 16 -278141989 650178506 -1141936471 -269484378
            -734074953 1424916439 394262517 -144770867</internalNodes>
          <leafValues>
            -2.5950452685356140e-01 3.1631916761398315e-01</leafValues></_>
        <_>
          <internalNodes>
            0 -1 275 348914704 956091532 185346702 890803317 691562529
            948480478 1045239993 408166647</internalNodes>
          <leafValues>
            -6.0584467649459839e-01 1.4807668328285217e-01</leafValues></_>
        <_>
          <internalNodes>
            0 -1 59 -144740189 1738001406 -768310960 -1844579626
            -606886363 378506118 1897981130 -145235329</internalNodes>
          <leafValues>
            -2.9488655924797058e-01 2.7619853615760803e-01</leafValues></_>
        <_>
          <internalNodes>
            0 -1 278 -1529011603 -503024892 -1196158336 -896626406
            -1294760942 -326957992 2046908848 1275648044</internalNodes>
          <leafValues>
            -5.1506990194320679e-01 1.5887667238712311e-01</leafValues></_>
        <_>
          <internalNodes>
            0 -1 273 -1761755669 432730095 788327919 836595152
            1702223082 -1118391065 -160056149 -72000586</internalNodes>
          <leafValues>
            -1.8755395710468292e-01 4.2834791541099548e-01</leafValues></_>
        <_>
          <internalNodes>
            0 -1 146 -1576518543 -1344735736 -2130293277 -1265858608
            -477103296 -1179967093 -251455595 -1197448443</internalNodes>
          <leafValues>
            -4.1559574007987976e-01 1.9976082444190979e-01</leafValues></_>
        <_>
          <internalNodes>
            0 -1 137 685247824 1800599852 -125646122 -1531837486
            -1114881992 2105966729 -274163545 -555204464</internalNodes>
          <leafValues>
            -5.4182422161102295e-01 1.4843027293682098e-01</leafValues></_>
        <_>
          <internalNodes>
            0 -1 309 -1834203492 -1144471490 -989759527 1541381310
            2082511458 -130449359 -1248791874 -1475739600</internalNodes>
          <leafValues>
            -3.2926702499389648e-01 2.5471752882003784e-01</leafValues></_>
        <_>
          <internalNodes>
            0 -1 395 -838864869 934281071 -1493246797 -760479745
            794085366 939523957 -4728902 -973222470</internalNodes>
          <leafValues>
            -1.9547906517982483e-01 4.3300163745880127e-01</leafValues></_>
        <_>
          <internalNodes>
            0 -1 358 -702953335 -895684608 1632896178 1800393107
            -1974591085 -1447446293 -1465685086 -205819493</internalNodes>
          <leafValues>
            -2.8142774105072021e-01 2.8874179720878601e-01</leafValues></_>
        <_>
          <internalNodes>
            0 -1 192 -166668040 368267124 1005479352 1371183837
            -1233867820 -2229291 1047176827 -1617211909</internalNodes>
          <leafValues>
            -2.4404919147491455e-01 3.4931826591491699e-01</leafValues></_></weakClassifiers></_>
    <!-- stage 12 -->
    <_>
      <maxWeakCount>29</maxWeakCount>
      <stageThreshold>-1.4507834911346436e+00</stageThreshold>
      <weakClassifiers>
        <_>
          <internalNodes>
            0 -1 6 2006646514 -205073081 822127652 1991272066
            -1132181076 -2514705 -1515619501 -1107859998</internalNodes>
          <leafValues>
            -4.8029392957687378e-01 5.9494704008102417e-02</leafValues></_>
        <_>
          <internalNodes>
            0 -1 388 -1558205937 825731855 -2130408824 1926879780
            1570177543 1376277059 -1437127928 -991430209</internalNodes>
          <leafValues>
            -3.0570566654205322e-01 2.3192614316940308e-01</leafValues></_>
        <_>
          <internalNodes>
            0 -1 203 862901696 -1328265775 -586568671 2110624014
            1913908145 -1132441471 890552570 866853514</internalNodes>
          <leafValues>
            -2.6611408591270447e-01 2.6926848292350769e-01</leafValues></_>
        <_>
          <internalNodes>
            0 -1 134 653272180 -1499739709 667685979 -1076033029
            -340837419 -1149059063 983414939 987728328</internalNodes>
          <leafValues>
            -4.5031788945198059e-01 1.5479506552219391e-01</leafValues></_>
        <_>
          <internalNodes>
            0 -1 66 614285857 119357752 76349443 1942354375 418275412
            437461024 1074386016 1998320667</internalNodes>
          <leafValues>
            -2.8414517641067505e-01 2.5671428442001343e-01</leafValues></_>
        <_>
          <internalNodes>
            0 -1 75 403736656 1340465952 -1911651535 -272299666
            2044723205 -1713958909 -246624228 -32305630</internalNodes>
          <leafValues>
            -5.7970267534255981e-01 1.0414408892393112e-01</leafValues></_>
        <_>
          <internalNodes>
            0 -1 269 1828514469 -976165802 1884212123 -1932949213
            1942055188 -536950645 -1308253660 77849347</internalNodes>
          <leafValues>
            -3.0622702836990356e-01 2.2137077152729034e-01</leafValues></_>
        <_>
          <internalNodes>
            0 -1 402 -857747294 -733148854 -2146947712 1176273806
            1744865492 -2010799456 -1069524940 -1062276145</internalNodes>
          <leafValues>
            -2.9351428151130676e-01 2.2741577029228210e-01</leafValues></_>
        <_>
          <internalNodes>
            0 -1 271 -1963967436 478708933 1208275069 -1879033590
            -1268032567 -520044416 -1034722877 978068516</internalNodes>
          <leafValues>
            -5.5777901411056519e-01 1.1346312612295151e-01</leafValues></_>
        <_>
          <internalNodes>
            0 -1 357 -15797351 -624804176 -43589647 -573616899 926678495
            -1611204874 -1893484581 -879768101</internalNodes>
          <leafValues>
            -1.3731026649475098e-01 5.0906956195831299e-01</leafValues></_>
        <_>
          <internalNodes>
            0 -1 236 -1942321127 -964275235 -1793995311 -1479792545
            -1098082267 -1196733437 -355848617 -1430619936</internalNodes>
          <leafValues>
            -3.1377574801445007e-01 2.1187283098697662e-01</leafValues></_>
        <_>
          <internalNodes>
            0 -1 214 425713085 -1280381692 -1878982517 -33717880
            1176000684 -1420032832 831037221 -13083240</internalNodes>
          <leafValues>
            -3.4945499897003174e-01 2.0104630291461945e-01</leafValues></_>
        <_>
          <internalNodes>
            0 -1 123 1404805865 -382515673 -17400271 983820923
            -671284214 -134259428 -756637989 -681323013</internalNodes>
          <leafValues>
            -2.2966489195823669e-01 3.4719169139862061e-01</leafValues></_>
        <_>
          <internalNodes>
            0 -1 194 -275620684 -620802860 2130475757 124507894
            -1099533246 -279716004 300972771 993777227</internalNodes>
          <leafValues>
            -2.2636210918426514e-01 3.2934486865997314e-01</leafValues></_>
        <_>
          <internalNodes>
            0 -1 152 1543622017 -259219223 -2058309367 2107441224
            -671058462 -619633408 -1389348164 246188170</internalNodes>
          <leafValues>
            -2.4380362033843994e-01 2.9264751076698303e-01</leafValues></_>
        <_>
          <internalNodes>
            0 -1 161 -122627852 -70132596 -68635459 803078204 1588975238
            -1263018638 -1091548278 -1967518414</internalNodes>
          <leafValues>
            -2.4420771002769470e-01 2.9045262932777405e-01</leafValues></_>
        <_>
          <internalNodes>
            0 -1 400 -138681038 884797306 -1359076114 1793388538
            1551805878 1274476383 1710688168 -993010434</internalNodes>
          <leafValues>
            -2.3579518496990204e-01 3.0155286192893982e-01</leafValues></_>
        <_>
          <internalNodes>
            0 -1 319 -73729029 -1959903237 -84936067 -4066342 -303067251
            -862072854 1560270657 -908073074</internalNodes>
          <leafValues>
            -2.6167842745780945e-01 2.7895146608352661e-01</leafValues></_>
        <_>
          <internalNodes>
            0 -1 312 -280195848 -197333074 920206004 -291799303
            1835953595 -164429900 129054650 -1576283729</internalNodes>
          <leafValues>
            -2.1615557372570038e-01 3.4535476565361023e-01</leafValues></_>
        <_>
          <internalNodes>
            0 -1 96 -991174141 1848176442 -1090541697 243121098
            -453035797 -537084427 2000596859 -143150761</internalNodes>
          <leafValues>
            -2.5669419765472412e-01 2.9318547248840332e-01</leafValues></_>
        <_>
          <internalNodes>
            0 -1 227 -775056939 480669265 -67473679 1424324165
            -1083189844 -1400931075 -1359443298 -1151531805</internalNodes>
          <leafValues>
            -1.7947685718536377e-01 4.0354573726654053e-01</leafValues></_>
        <_>
          <internalNodes>
            0 -1 118 -1198532451 1012388048 1410455574 570990262
            549191684 483861252 -699850752 -939503584</internalNodes>
          <leafValues>
            -6.2125545740127563e-01 1.2148156017065048e-01</leafValues></_>
        <_>
          <internalNodes>
            0 -1 327 1026293233 -4436624 1038081517 -46289793 -818356579
            -1940807693 -411651329 -6596421</internalNodes>
          <leafValues>
            -1.5264727175235748e-01 5.4303747415542603e-01</leafValues></_>
        <_>
          <internalNodes>
            0 -1 186 412110964 -52279085 957480968 -1575485046
            -1564274128 739322881 -6420416 -266935674</internalNodes>
          <leafValues>
            -6.1445397138595581e-01 1.2553459405899048e-01</leafValues></_>
        <_>
          <internalNodes>
            0 -1 30 -894628214 -1455269616 -1592107047 -1022245560
            1488987093 1872929057 36653924 -148675798</internalNodes>
          <leafValues>
            -3.5023066401481628e-01 2.1224620938301086e-01</leafValues></_>
        <_>
          <internalNodes>
            0 -1 105 1393397064 1350587852 -1727722007 1024357289
            889784709 1686110289 -377377334 822026938</internalNodes>
          <leafValues>
            -3.1996113061904907e-01 2.4112829566001892e-01</leafValues></_>
        <_>
          <internalNodes>
            0 -1 323 295672968 605827414 -1388312053 -1760886755
            1887452352 -477415366 -359258068 560288483</internalNodes>
          <leafValues>
            -3.4996169805526733e-01 2.1001027524471283e-01</leafValues></_>
        <_>
          <internalNodes>
            0 -1 336 -624422338 -403562045 -1733885729 2053411215
            1740352528 -16218139 -273141511 -2073605310</internalNodes>
          <leafValues>
            -3.1822910904884338e-01 2.4882198870182037e-01</leafValues></_>
        <_>
          <internalNodes>
            0 -1 5 245770784 231801444 -1884213185 243083990 970650176
            -1961977720 -938239717 750525865</internalNodes>
          <leafValues>
            -6.6725140810012817e-01 1.1926989257335663e-01</leafValues></_></weakClassifiers></_>
    <!-- stage 13 -->
    <_>
      <maxWeakCount>31</maxWeakCount>
      <stageThreshold>-1.4410185813903809e+00</stageThreshold>
      <weakClassifiers>
        <_>
          <internalNodes>
            0 -1 174 -44911625 -166593969 -49774401 -75320881
            -1021313650 -620722969 1417853578 1473159823</internalNodes>
          <leafValues>
            -4.1218638420104980e-01 1.1147721111774445e-01</leafValues></_>
        <_>
          <internalNodes>
            0 -1 338 1317768325 2009899631 -883720033 -101126881
            1784947204 1594583047 -1467416568 -177740833</internalNodes>
          <leafValues>
            -2.8348755836486816e-01 2.1749554574489594e-01</leafValues></_>
        <_>
          <internalNodes>
            0 -1 17 1190126631 126887845 -174768009 -15021115 1670864099
            264426112 -975592131 -825239861</internalNodes>
          <leafValues>
            -2.3963911831378937e-01 2.4438777565956116e-01</leafValues></_>
        <_>
          <internalNodes>
            0 -1 398 -163651328 -1575070519 1133570353 -254553757
            1980584197 1879572544 390447832 -156762501</internalNodes>
          <leafValues>
            -2.9246449470520020e-01 1.9901397824287415e-01</leafValues></_>
        <_>
          <internalNodes>
            0 -1 253 -1945230320 -1415034100 1350767357 -1260900134
            -591327724 -1395343207 -637332640 -1433660300</internalNodes>
          <leafValues>
            -3.9486727118492126e-01 1.7463611066341400e-01</leafValues></_>
        <_>
          <internalNodes>
            0 -1 140 -797255438 -576762566 980975162 -650146668
            1073481396 -204020138 919912154 -100450205</internalNodes>
          <leafValues>
            -1.9974079728126526e-01 3.0399882793426514e-01</leafValues></_>
        <_>
          <internalNodes>
            0 -1 366 204353568 -1289175294 -1730627427 -60849763
            566502296 -53491326 764021097 -2082294276</internalNodes>
          <leafValues>
            -4.4474503397941589e-01 1.3589753210544586e-01</leafValues></_>
        <_>
          <internalNodes>
            0 -1 383 1644822659 -1509165034 34485398 1756287124
            -383319025 -1557248831 1008308539 -199504769</internalNodes>
          <leafValues>
            -2.4712418019771576e-01 2.4021688103675842e-01</leafValues></_>
        <_>
          <internalNodes>
            0 -1 69 -1141899398 -202375437 -5326992 2071654322
            -268435506 -1359063041 1610546923 -537004297</internalNodes>
          <leafValues>
            -2.1513709425926208e-01 3.0448091030120850e-01</leafValues></_>
        <_>
          <internalNodes>
            0 -1 44 -1905872493 -1572978469 286201274 1779322902
            714670516 384598163 -1826942656 -255491344</internalNodes>
          <leafValues>
            -4.0040674805641174e-01 1.7973071336746216e-01</leafValues></_>
        <_>
          <internalNodes>
            0 -1 211 -1171237552 -5751284 1862237925 -209611067
            1069309860 -982737739 627014818 -1432675953</internalNodes>
          <leafValues>
            -2.2674885392189026e-01 2.9439106583595276e-01</leafValues></_>
        <_>
          <internalNodes>
            0 -1 35 -288388486 1506033666 -1537850390 1499316801
            583275654 1822638210 1478480469 -109719241</internalNodes>
          <leafValues>
            -2.5300863385200500e-01 2.5038045644760132e-01</leafValues></_>
        <_>
          <internalNodes>
            0 -1 304 -1869555208 -2138171688 412147861 1048632473
            -2104655190 159547566 268652778 -1948364608</internalNodes>
          <leafValues>
            -3.2037454843521118e-01 2.0592029392719269e-01</leafValues></_>
        <_>
          <internalNodes>
            0 -1 222 -469529784 -2068037358 -779238043 -2048594673
            1342550368 -585006171 -901064438 970609519</internalNodes>
          <leafValues>
            -3.2299682497978210e-01 1.9590164721012115e-01</leafValues></_>
        <_>
          <internalNodes>
            0 -1 224 1585508737 2142302079 -289461694 -744034777
            -135888968 855584743 939404972 1905130628</internalNodes>
          <leafValues>
            -2.3531176149845123e-01 2.7836617827415466e-01</leafValues></_>
        <_>
          <internalNodes>
            0 -1 196 -494462981 -740543543 1344429719 290523095
            -477738294 -561288128 -879080472 -1173203902</internalNodes>
          <leafValues>
            -2.7818807959556580e-01 2.3045830428600311e-01</leafValues></_>
        <_>
          <internalNodes>
            0 -1 303 -879702864 -543948851 -537461291 -688161543
            -1619333124 1877474655 950205083 -1690627869</internalNodes>
          <leafValues>
            -1.9301152229309082e-01 3.4728622436523438e-01</leafValues></_>
        <_>
          <internalNodes>
            0 -1 147 -768354657 -102041616 -1073762505 -1847725087
            -1611148551 -1074006025 -268964187 -790257981</internalNodes>
          <leafValues>
            -1.7800138890743256e-01 4.0583676099777222e-01</leafValues></_>
        <_>
          <internalNodes>
            0 -1 122 -19264661 1710849067 -352916609 1399015379 -9028096
            -135112955 -1082336827 -75501958</internalNodes>
          <leafValues>
            -2.1391531825065613e-01 3.3262273669242859e-01</leafValues></_>
        <_>
          <internalNodes>
            0 -1 4 41717458 1845881874 -984071675 -1625332942 1289356092
            -880738302 -342120165 2142833059</internalNodes>
          <leafValues>
            -4.6910199522972107e-01 1.8080025911331177e-01</leafValues></_>
        <_>
          <internalNodes>
            0 -1 210 -729778980 -129234787 -561328200 -1734958362
            1392279769 -1340401571 730988865 982648353</internalNodes>
          <leafValues>
            -3.7999176979064941e-01 1.6946864128112793e-01</leafValues></_>
        <_>
          <internalNodes>
            0 -1 226 -1724229579 -1698642098 -743538145 -1622551711
            -385195327 -213777752 1594499500 -1130735324</internalNodes>
          <leafValues>
            -2.7788358926773071e-01 2.5552558898925781e-01</leafValues></_>
        <_>
          <internalNodes>
            0 -1 376 -1121276921 954903062 -1937404515 1013543119
            -1714738238 -785618486 -1196958039 -1356274529</internalNodes>
          <leafValues>
            -2.7127414941787720e-01 2.6898267865180969e-01</leafValues></_>
        <_>
          <internalNodes>
            0 -1 371 1999620820 -394198816 570815185 -1350049611
            406921392 -2009591224 1350632212 -1945375325</internalNodes>
          <leafValues>
            -3.3533459901809692e-01 2.1052110195159912e-01</leafValues></_>
        <_>
          <internalNodes>
            0 -1 204 -601324400 -1267692250 -20972547 1568403443
            1072971238 -1611366596 -592020 -1468451124</internalNodes>
          <leafValues>
            -2.5581306219100952e-01 2.8407704830169678e-01</leafValues></_>
        <_>
          <internalNodes>
            0 -1 26 -1002018848 324313269 -732136783 1536443972
            848130832 126353432 1908470568 -662849004</internalNodes>
          <leafValues>
            -3.1904354691505432e-01 2.3039454221725464e-01</leafValues></_>
        <_>
          <internalNodes>
            0 -1 390 -243275893 913031039 -1363251209 1966270370
            332609453 1744568183 -323635783 -4597221</internalNodes>
          <leafValues>
            -1.8671196699142456e-01 3.9275574684143066e-01</leafValues></_>
        <_>
          <internalNodes>
            0 -1 176 -1972324219 -1395108650 -798146100 1490731242
            1552124209 -373257949 1259559082 -1146596844</internalNodes>
          <leafValues>
            -3.3189690113067627e-01 2.2723509371280670e-01</leafValues></_>
        <_>
          <internalNodes>
            0 -1 274 245763744 293965996 -585969883 1020168646 815849622
            698384864 -49917516 195322146</internalNodes>
          <leafValues>
            -4.1667172312736511e-01 1.8338927626609802e-01</leafValues></_>
        <_>
          <internalNodes>
            0 -1 404 -268447089 528285430 -1359012114 -583009620
            -174846513 771555068 -1619571064 -539249017</internalNodes>
          <leafValues>
            -2.1357649564743042e-01 3.6963206529617310e-01</leafValues></_>
        <_>
          <internalNodes>
            0 -1 47 -1103942221 420635706 1099702576 698662420
            -1037168592 1223036970 -195945715 1796697759</internalNodes>
          <leafValues>
            -2.7496775984764099e-01 2.5956735014915466e-01</leafValues></_></weakClassifiers></_>
    <!-- stage 14 -->
    <_>
      <maxWeakCount>33</maxWeakCount>
      <stageThreshold>-1.4840520620346069e+00</stageThreshold>
      <weakClassifiers>
        <_>
          <internalNodes>
            0 -1 1 -358089813 -1430049621 1908529423 -1892685824
            160169882 1086754209 1389357051 -134233857</internalNodes>
          <leafValues>
            -4.0471673011779785e-01 1.1426947265863419e-01</leafValues></_>
        <_>
          <internalNodes>
            0 -1 154 -12342313 1354079692 -271828180 -577111203
            -43215645 -1263229049 -1109524598 552057774</internalNodes>
          <leafValues>
            -2.1187146008014679e-01 2.9461044073104858e-01</leafValues></_>
        <_>
          <internalNodes>
            0 -1 119 -422053892 505196748 -251593314 1913279634
            143516252 1790646716 -116792056 -84189918</internalNodes>
          <leafValues>
            -3.1439471244812012e-01 1.9804503023624420e-01</leafValues></_>
        <_>
          <internalNodes>
            0 -1 150 37240368 -2103798311 -1349108547 798294088
            -1912054665 1275778381 779750301 469514750</internalNodes>
          <leafValues>
            -5.5802005529403687e-01 1.0326627641916275e-01</leafValues></_>
        <_>
          <internalNodes>
            0 -1 348 -957412129 -1476497442 -1392542714 -1879064721
            -2030176769 -25329689 -332847432 -1936296262</internalNodes>
          <leafValues>
            -1.9103492796421051e-01 2.9464957118034363e-01</leafValues></_>
        <_>
          <internalNodes>
            0 -1 290 -536951153 2141454011 2113392605 -1082179881
            620515328 -101255367 -1057521494 -134749221</internalNodes>
          <leafValues>
            -2.0933097600936890e-01 2.8594318032264709e-01</leafValues></_>
        <_>
          <internalNodes>
            0 -1 190 -2026058568 -1681281799 -1093877895 2074820328
            1605374396 -18944111 -563054861 -1647631045</internalNodes>
          <leafValues>
            -1.8833711743354797e-01 3.0809193849563599e-01</leafValues></_>
        <_>
          <internalNodes>
            0 -1 131 -359617771 -2000149454 -1572594703 2036605077
            -1104142427 -666392349 -28854102 -1193520131</internalNodes>
          <leafValues>
            -2.8717872500419617e-01 2.0912891626358032e-01</leafValues></_>
        <_>
          <internalNodes>
            0 -1 318 -1684907109 -1173467192 996400473 -1617597546
            -1145962062 -2037660694 494556405 -1901342568</internalNodes>
          <leafValues>
            -2.4836283922195435e-01 2.4517157673835754e-01</leafValues></_>
        <_>
          <internalNodes>
            0 -1 98 175385648 207585386 -2079651578 728507277 1919489077
            1931579843 36251712 1900618541</internalNodes>
          <leafValues>
            -6.8870776891708374e-01 1.0325168073177338e-01</leafValues></_>
        <_>
          <internalNodes>
            0 -1 85 -665154569 433234971 -697772621 2099388548
            -367185860 -863518697 -1601650351 -666435517</internalNodes>
          <leafValues>
            -2.3620161414146423e-01 2.7005073428153992e-01</leafValues></_>
        <_>
          <internalNodes>
            0 -1 209 -155149832 -1183803462 -51384683 1574259955 -864352
            -1540299275 -4827621 -1962210181</internalNodes>
          <leafValues>
            -2.2343705594539642e-01 3.0274102091789246e-01</leafValues></_>
        <_>
          <internalNodes>
            0 -1 61 -1848187646 1185305120 -314540006 571924582
            1926854404 1352106603 -2132280828 -448038337</internalNodes>
          <leafValues>
            -4.6597406268119812e-01 1.5085312724113464e-01</leafValues></_>
        <_>
          <internalNodes>
            0 -1 148 -221207920 1767437555 -660533027 -2019653397
            -784291446 -761214907 -1547662418 1472826636</internalNodes>
          <leafValues>
            -2.7780973911285400e-01 2.2195780277252197e-01</leafValues></_>
        <_>
          <internalNodes>
            0 -1 115 902857471 1685205475 452987566 -358448946
            -342679436 -258398157 1502341201 -211167137</internalNodes>
          <leafValues>
            -3.5860836505889893e-01 1.8498799204826355e-01</leafValues></_>
        <_>
          <internalNodes>
            0 -1 413 -2137390568 -1568253494 1952678096 -267107298
            553532200 707000518 343950265 13044791</internalNodes>
          <leafValues>
            -4.0058448910713196e-01 1.6839209198951721e-01</leafValues></_>
        <_>
          <internalNodes>
            0 -1 235 -170489933 -1984060272 -1920411171 -1800367864
            -538785380 -576421744 2116578184 -540511224</internalNodes>
          <leafValues>
            -2.8484603762626648e-01 2.4597284197807312e-01</leafValues></_>
        <_>
          <internalNodes>
            0 -1 331 -538747655 2016208844 1072611191 -586842180
            729480959 -1356973126 524210607 -844375297</internalNodes>
          <leafValues>
            -1.6086098551750183e-01 4.6028143167495728e-01</leafValues></_>
        <_>
          <internalNodes>
            0 -1 247 209982996 433959020 -690068135 1792055576 306184931
            -1594097240 -1453248746 1657289490</internalNodes>
          <leafValues>
            -5.3786307573318481e-01 1.5222835540771484e-01</leafValues></_>
        <_>
          <internalNodes>
            0 -1 399 -106965829 151400371 -1363251371 -412288918
            1080464582 -1252043655 1330699418 -1874073857</internalNodes>
          <leafValues>
            -1.9993066787719727e-01 3.6611926555633545e-01</leafValues></_>
        <_>
          <internalNodes>
            0 -1 220 747957833 -2133421175 -643657327 -326347552
            -669973692 -39140647 -1432344296 -911531630</internalNodes>
          <leafValues>
            -3.0022388696670532e-01 2.3549701273441315e-01</leafValues></_>
        <_>
          <internalNodes>
            0 -1 18 1839376294 273860964 -754867453 843066138 706814411
            1660994377 1526877631 1375009602</internalNodes>
          <leafValues>
            -3.7380298972129822e-01 1.7935915291309357e-01</leafValues></_>
        <_>
          <internalNodes>
            0 -1 313 445793336 -1344196467 -1869233960 1626216888
            -70269514 -1593602029 -1970631240 -1077999480</internalNodes>
          <leafValues>
            -2.7488684654235840e-01 2.5285530090332031e-01</leafValues></_>
        <_>
          <internalNodes>
            0 -1 68 1364541056 1294549387 77241490 -503135561 -896129017
            1761706855 1222323371 1885843735</internalNodes>
          <leafValues>
            -4.6141421794891357e-01 1.5007279813289642e-01</leafValues></_>
        <_>
          <internalNodes>
            0 -1 227 -635579912 1589931856 2046424829 -1108511215
            1013440128 -1073840523 -1783583096 -1471276000</internalNodes>
          <leafValues>
            -2.3266290128231049e-01 2.9983174800872803e-01</leafValues></_>
        <_>
          <internalNodes>
            0 -1 294 170922016 1772536747 20120165 -1827569536
            -1826250697 294365579 838965959 -1989268697</internalNodes>
          <leafValues>
            -5.6673616170883179e-01 1.1557748168706894e-01</leafValues></_>
        <_>
          <internalNodes>
            0 -1 84 -193475161 1901555440 1869999485 1671236572
            1918698838 972283889 -17797126 -83662959</internalNodes>
          <leafValues>
            -1.9951511919498444e-01 3.7078180909156799e-01</leafValues></_>
        <_>
          <internalNodes>
            0 -1 332 -1492195870 1178733328 -787984348 2068381377
            -1836334132 -625889150 -477415742 -731456566</internalNodes>
          <leafValues>
            -3.4161242842674255e-01 2.0761257410049438e-01</leafValues></_>
        <_>
          <internalNodes>
            0 -1 208 -1668283151 482384684 -1086696763 794790356
            -442218096 -63372880 2057909970 -1920839447</internalNodes>
          <leafValues>
            -3.1149637699127197e-01 2.2285254299640656e-01</leafValues></_>
        <_>
          <internalNodes>
            0 -1 180 976915360 -1399533392 -796552745 -558853783
            969046701 -618741604 -1592912708 -1962985675</internalNodes>
          <leafValues>
            -3.1127136945724487e-01 2.2781644761562347e-01</leafValues></_>
        <_>
          <internalNodes>
            0 -1 342 -237106160 429695195 337218795 327888962 -792069084
            -389001197 -1156520546 -1431686795</internalNodes>
          <leafValues>
            -2.9719451069831848e-01 2.2948399186134338e-01</leafValues></_>
        <_>
          <internalNodes>
            0 -1 255 2079323377 -1368330885 -16859219 -1347748121
            2075500433 2130567157 -1399054048 -765201522</internalNodes>
          <leafValues>
            -2.3676511645317078e-01 2.9449120163917542e-01</leafValues></_>
        <_>
          <internalNodes>
            0 -1 74 1643915867 956473814 -1786169515 894932890
            -926729833 -326596447 -377482455 2060544550</internalNodes>
          <leafValues>
            -3.3281072974205017e-01 2.0768235623836517e-01</leafValues></_></weakClassifiers></_>
    <!-- stage 15 -->
    <_>
      <maxWeakCount>35</maxWeakCount>
      <stageThreshold>-1.2374799251556396e+00</stageThreshold>
      <weakClassifiers>
        <_>
          <internalNodes>
            0 -1 0 -202654721 -1360362866 999358966 -24213810 732945343
            1284034603 -408165449 -201329921</internalNodes>
          <leafValues>
            -4.1083520650863647e-01 8.6134456098079681e-02</leafValues></_>
        <_>
          <internalNodes>
            0 -1 349 -590373697 366515008 162614233 -1786883289
            956942777 1000974390 -667984840 -1112540342</internalNodes>
          <leafValues>
            -2.4564857780933380e-01 2.3886391520500183e-01</leafValues></_>
        <_>
          <internalNodes>
            0 -1 306 -1271253451 -520890412 -645406209 519607701
            -1466234780 -371472333 -773443536 -1428409995</internalNodes>
          <leafValues>
            -3.2692810893058777e-01 1.6878640651702881e-01</leafValues></_>
        <_>
          <internalNodes>
            0 -1 91 -1784747122 -1789691678 544914034 -1831626504
            -1257917364 -16610439 -196439827 -146803073</internalNodes>
          <leafValues>
            -2.6381668448448181e-01 2.0828762650489807e-01</leafValues></_>
        <_>
          <internalNodes>
            0 -1 34 -892433916 105603557 -1535639358 539520608
            1354916421 1120025664 1459879953 -493104541</internalNodes>
          <leafValues>
            -4.2939445376396179e-01 1.4463976025581360e-01</leafValues></_>
        <_>
          <internalNodes>
            0 -1 112 -856905325 1006277068 979032467 -1025051122
            -895524699 -1025146718 -1323943104 -1609263610</internalNodes>
          <leafValues>
            -2.8506767749786377e-01 2.1269722282886505e-01</leafValues></_>
        <_>
          <internalNodes>
            0 -1 378 -928411216 -1733542231 -1082317231 -34212421
            623835034 1584250878 -1375942900 -855644418</internalNodes>
          <leafValues>
            -2.2918878495693207e-01 2.6076063513755798e-01</leafValues></_>
        <_>
          <internalNodes>
            0 -1 276 207625236 653303707 -124265242 -238992734
            1463120746 -387760120 -1828560846 1045768200</internalNodes>
          <leafValues>
            -5.4329538345336914e-01 1.2438969314098358e-01</leafValues></_>
        <_>
          <internalNodes>
            0 -1 384 -187717741 1914607986 -1123614946 1626332122
            1900646656 1673012499 -734540284 -213128642</internalNodes>
          <leafValues>
            -2.6793506741523743e-01 2.1497623622417450e-01</leafValues></_>
        <_>
          <internalNodes>
            0 -1 223 626098948 72376675 -640034802 16571754 1381052228
            -330098278 1507621258 946234342</internalNodes>
          <leafValues>
            -4.0830993652343750e-01 1.3774128258228302e-01</leafValues></_>
        <_>
          <internalNodes>
            0 -1 71 1977213346 139068802 1880785997 -312316790
            1673167029 -894854752 982563199 1005812627</internalNodes>
          <leafValues>
            -3.3147862553596497e-01 1.6328914463520050e-01</leafValues></_>
        <_>
          <internalNodes>
            0 -1 202 2077757461 2082570373 2085698688 -1281531004
            1890403799 411169346 -527365427 1630830828</internalNodes>
          <leafValues>
            -2.8799113631248474e-01 2.0707412064075470e-01</leafValues></_>
        <_>
          <internalNodes>
            0 -1 270 110756912 -2100640831 1009242569 116928715
            -1459617163 -560673908 1511393348 -1970661019</internalNodes>
          <leafValues>
            -4.3757811188697815e-01 1.4236104488372803e-01</leafValues></_>
        <_>
          <internalNodes>
            0 -1 116 -679488313 -1143369986 -68616367 1895952101
            -596261714 -713695267 -1401358789 -538770209</internalNodes>
          <leafValues>
            -1.5632137656211853e-01 4.4188207387924194e-01</leafValues></_>
        <_>
          <internalNodes>
            0 -1 62 2079789055 -542184145 520005809 -1828061317
            -16822590 1877557195 -151816196 -77070337</internalNodes>
          <leafValues>
            -1.3584299385547638e-01 4.1785272955894470e-01</leafValues></_>
        <_>
          <internalNodes>
            0 -1 167 1594854135 -963202890 -1852599935 -2101294931
            -84887820 -1146296942 -1277654256 -134056420</internalNodes>
          <leafValues>
            -3.6090642213821411e-01 1.7022767663002014e-01</leafValues></_>
        <_>
          <internalNodes>
            0 -1 352 -576402700 -1784119671 754939639 -107417858
            775861434 -1352730897 373706910 -1663872849</internalNodes>
          <leafValues>
            -1.8789489567279816e-01 3.3031836152076721e-01</leafValues></_>
        <_>
          <internalNodes>
            0 -1 178 -1036906008 -1407449792 -256818777 -2131449511
            2019982612 -1820298877 -1862036851 -1427087153</internalNodes>
          <leafValues>
            -3.0566489696502686e-01 1.9833660125732422e-01</leafValues></_>
        <_>
          <internalNodes>
            0 -1 128 441555925 917827324 -25844175 -691538314 -370012467
            -301996057 2080235273 1939813834</internalNodes>
          <leafValues>
            -2.0836643874645233e-01 2.9956966638565063e-01</leafValues></_>
        <_>
          <internalNodes>
            0 -1 258 2042816005 -995201138 289499471 -321848120
            2119662868 1752375698 -646552247 -1477021246</internalNodes>
          <leafValues>
            -2.7991545200347900e-01 2.2175844013690948e-01</leafValues></_>
        <_>
          <internalNodes>
            0 -1 76 -419141706 71353304 2081578624 1740769282 46453204
            -1057345301 814912417 767644158</internalNodes>
          <leafValues>
            -3.7298634648323059e-01 1.6843613982200623e-01</leafValues></_>
        <_>
          <internalNodes>
            0 -1 343 -797005811 507510774 -318804328 -1213464657
            1149238657 -294131881 -1484796017 -2083784713</internalNodes>
          <leafValues>
            -2.1248853206634521e-01 3.0111250281333923e-01</leafValues></_>
        <_>
          <internalNodes>
            0 -1 246 2059436161 966313089 -987116179 -494419871
            1604452772 -91012660 -503289239 -1302531852</internalNodes>
          <leafValues>
            -2.5642684102058411e-01 2.5047752261161804e-01</leafValues></_>
        <_>
          <internalNodes>
            0 -1 135 921222041 2059202285 -3392355 -149154535 802043672
            -119431295 -586244310 463797638</internalNodes>
          <leafValues>
            -2.3560701310634613e-01 2.9799410700798035e-01</leafValues></_>
        <_>
          <internalNodes>
            0 -1 372 -877943166 -1967460934 -1073780755 -1648139018
            90512975 762244454 374691649 -808458949</internalNodes>
          <leafValues>
            -2.4987453222274780e-01 2.6192706823348999e-01</leafValues></_>
        <_>
          <internalNodes>
            0 -1 286 165130988 -1425059454 -1832880252 1762248140
            1143466673 75018278 1194496017 -842466828</internalNodes>
          <leafValues>
            -4.1554185748100281e-01 1.6274106502532959e-01</leafValues></_>
        <_>
          <internalNodes>
            0 -1 369 -324475520 1315454592 -16949456 -647983243
            -1572169736 -572792846 -866555477 -1376074093</internalNodes>
          <leafValues>
            -2.3238550126552582e-01 2.9218989610671997e-01</leafValues></_>
        <_>
          <internalNodes>
            0 -1 58 -914439241 1586863293 1078214958 1209242671
            -1875079946 2080417921 -741742198 -145233834</internalNodes>
          <leafValues>
            -2.6355338096618652e-01 2.4990895390510559e-01</leafValues></_>
        <_>
          <internalNodes>
            0 -1 389 -238293749 646878225 35214999 1983320155 1763667973
            793002627 1541589376 -1558873457</internalNodes>
          <leafValues>
            -2.9165986180305481e-01 2.3283976316452026e-01</leafValues></_>
        <_>
          <internalNodes>
            0 -1 407 -440685594 -461850648 -1375863168 -1958871192
            -1023522909 720107007 1991200137 -105909077</internalNodes>
          <leafValues>
            -1.9804044067859650e-01 3.3400496840476990e-01</leafValues></_>
        <_>
          <internalNodes>
            0 -1 151 -1533893360 -313382912 -1722688061 -648674672
            -1743112758 -414735352 -502405239 -1473113747</internalNodes>
          <leafValues>
            -3.0688479542732239e-01 2.2131983935832977e-01</leafValues></_>
        <_>
          <internalNodes>
            0 -1 340 -983577697 -1159887668 -1883214883 -884567677
            1913471560 -1693957822 -1357797054 1167184839</internalNodes>
          <leafValues>
            -2.5973495841026306e-01 2.5828173756599426e-01</leafValues></_>
        <_>
          <internalNodes>
            0 -1 414 -1561252303 249243656 -989793703 -520551447
            1648892126 134939130 1347302126 1222515435</internalNodes>
          <leafValues>
            -2.9206821322441101e-01 2.3791871964931488e-01</leafValues></_>
        <_>
          <internalNodes>
            0 -1 238 206569520 948760863 -94584688 -471924599 1347509157
            671646080 1881632981 469314314</internalNodes>
          <leafValues>
            -7.0545238256454468e-01 1.0547641664743423e-01</leafValues></_>
        <_>
          <internalNodes>
            0 -1 109 -119280399 1472916840 -1361993 -684019791 800553716
            -571050755 -4048052 -32254816</internalNodes>
          <leafValues>
            -2.0415681600570679e-01 3.5424032807350159e-01</leafValues></_></weakClassifiers></_>
    <!-- stage 16 -->
    <_>
      <maxWeakCount>32</maxWeakCount>
      <stageThreshold>-1.1708537340164185e+00</stageThreshold>
      <weakClassifiers>
        <_>
          <internalNodes>
            0 -1 70 -821821765 -938865990 1365877754 -271822202
            1259338473 -470419269 1491589612 -4197981</internalNodes>
          <leafValues>
            -4.1374224424362183e-01 5.3962081670761108e-02</leafValues></_>
        <_>
          <internalNodes>
            0 -1 365 -1099299759 1524514809 1190979823 2123287511
            -1348270780 -93533341 -1971486068 -1431204949</internalNodes>
          <leafValues>
            -2.6516008377075195e-01 1.9987797737121582e-01</leafValues></_>
        <_>
          <internalNodes>
            0 -1 291 819182783 -2112044479 360752892 -53180973
            2072648972 -32450141 633995436 1968173172</internalNodes>
          <leafValues>
            -2.9968631267547607e-01 1.8190813064575195e-01</leafValues></_>
        <_>
          <internalNodes>
            0 -1 367 407264256 -1386729391 -1891011073 -6651446
            973465325 -1630877606 983048142 -1617118592</internalNodes>
          <leafValues>
            -2.9543006420135498e-01 2.0666323602199554e-01</leafValues></_>
        <_>
          <internalNodes>
            0 -1 87 1574681595 -644841015 1145279874 254818562
            -1383964464 -363044824 -1177673088 -82796662</internalNodes>
          <leafValues>
            -3.2529059052467346e-01 1.7053493857383728e-01</leafValues></_>
        <_>
          <internalNodes>
            0 -1 130 -224031789 285655754 1343227268 815570178
            -1340237882 -339613565 -1281820021 1894749070</internalNodes>
          <leafValues>
            -2.4575348198413849e-01 2.3476947844028473e-01</leafValues></_>
        <_>
          <internalNodes>
            0 -1 205 -1413734124 39097848 -457105675 -2074045940
            -1146398248 -670424890 -620093072 -2009171883</internalNodes>
          <leafValues>
            -4.1961878538131714e-01 1.1707494407892227e-01</leafValues></_>
        <_>
          <internalNodes>
            0 -1 102 1779432773 728907751 -1108017693 1073070079
            503080182 -1 2122268471 -1090996481</internalNodes>
          <leafValues>
            -2.0267195999622345e-01 2.7139824628829956e-01</leafValues></_>
        <_>
          <internalNodes>
            0 -1 64 624656811 -236197234 -1543602565 -102113305
            -1610612958 741039732 1198806775 -148901949</internalNodes>
          <leafValues>
            -1.7767949402332306e-01 3.2448384165763855e-01</leafValues></_>
        <_>
          <internalNodes>
            0 -1 225 -268139980 -1785555242 -595555056 -1990934154
            2074483104 351703129 -290297922 1308367862</internalNodes>
          <leafValues>
            -2.9217851161956787e-01 1.9531513750553131e-01</leafValues></_>
        <_>
          <internalNodes>
            0 -1 268 -546345989 -138723414 -226496599 1038220268
            1061807532 -496960776 1547627753 -574499591</internalNodes>
          <leafValues>
            -1.8410550057888031e-01 3.1081533432006836e-01</leafValues></_>
        <_>
          <internalNodes>
            0 -1 282 1282980661 1591029448 -419645443 1928015007
            482129654 -823620227 924499896 -1626714737</internalNodes>
          <leafValues>
            -2.3170466721057892e-01 2.5859925150871277e-01</leafValues></_>
        <_>
          <internalNodes>
            0 -1 86 2145816535 347078391 -688465 1261698550 -28453312
            -640229657 -51585073 -83716608</internalNodes>
          <leafValues>
            -1.8151645362377167e-01 3.0737635493278503e-01</leafValues></_>
        <_>
          <internalNodes>
            0 -1 55 -1661009886 580296086 1228166160 1957405006
            -155612668 1545748556 1762904322 -227283298</internalNodes>
          <leafValues>
            -3.3194029331207275e-01 1.8337820470333099e-01</leafValues></_>
        <_>
          <internalNodes>
            0 -1 159 -2103790881 -1634673274 -100319763 -849063762
            -107284264 -1097330671 2015590996 1281778056</internalNodes>
          <leafValues>
            -2.4920870363712311e-01 2.4193628132343292e-01</leafValues></_>
        <_>
          <internalNodes>
            0 -1 54 -1861943081 -1294937849 152260866 1935053938 100790
            -1445457223 -82889654 -879030517</internalNodes>
          <leafValues>
            -2.2860117256641388e-01 2.6510578393936157e-01</leafValues></_>
        <_>
          <internalNodes>
            0 -1 260 -471678955 1826127156 774830331 -905982332
            879809893 -285884481 -77135977 -353730971</internalNodes>
          <leafValues>
            -2.3827712237834930e-01 2.5811365246772766e-01</leafValues></_>
        <_>
          <internalNodes>
            0 -1 277 -1464194048 12642584 -191487510 -1892945792
            -786423579 1789043160 1264530179 -395590880</internalNodes>
          <leafValues>
            -3.4720039367675781e-01 1.8783307075500488e-01</leafValues></_>
        <_>
          <internalNodes>
            0 -1 41 -686303490 -110788622 2130656926 497811242 913473412
            1761540085 -176869809 -557318557</internalNodes>
          <leafValues>
            -1.8887981772422791e-01 3.4209442138671875e-01</leafValues></_>
        <_>
          <internalNodes>
            0 -1 3 166461602 147114350 1946491184 135153696 1737170215
            241402599 1133777911 1347709807</internalNodes>
          <leafValues>
            -5.2662777900695801e-01 1.2660047411918640e-01</leafValues></_>
        <_>
          <internalNodes>
            0 -1 265 1145229540 1485902549 -1022111682 1961795881
            -1737571796 -1673834987 -102437003 -1953611563</internalNodes>
          <leafValues>
            -2.9982754588127136e-01 2.0926848053932190e-01</leafValues></_>
        <_>
          <internalNodes>
            0 -1 6 85073650 13026507 1354924080 -1300093728 1578656100
            -270434150 -1046651534 1283354722</internalNodes>
          <leafValues>
            -3.9850017428398132e-01 1.5395052731037140e-01</leafValues></_>
        <_>
          <internalNodes>
            0 -1 179 -2069126228 1218765654 1073852677 -1242438468
            2049196064 -16617139 2063787553 175097842</internalNodes>
          <leafValues>
            -3.4878852963447571e-01 1.7307749390602112e-01</leafValues></_>
        <_>
          <internalNodes>
            0 -1 351 -471619403 842519191 -2141515849 -552729782
            1503246620 -1894710911 1476472860 -1513678526</internalNodes>
          <leafValues>
            -2.8335538506507874e-01 2.2158366441726685e-01</leafValues></_>
        <_>
          <internalNodes>
            0 -1 177 2129355987 -51594280 532556389 2101214200
            -1216372747 -10996993 -278098035 -1157662993</internalNodes>
          <leafValues>
